
\data\
ngram 1=10
ngram 2=12
ngram 3=3

\1-grams:
-0.8115751	.	-1.228236
-0.8115751	</s>
-99	<s>	0.05287682
-1.039253	I	-0.435514
-1.021994	NLP	-0.006386814
-1.039253	are	-0.08509815
-1.057227	fun	-0.2282356
-0.9446971	language	-0.2864177
-1.039253	love	-0.199403
-0.9172589	models	-0.1505575

\2-grams:
-0.02227639	. </s>
-1.267172	<s> I	0
-1.568202	<s> NLP
-0.1760913	I love
-0.7781513	NLP .
-0.60206	are fun
-0.30103	fun .
-0.2632414	language models	-0.07918128
-0.60206	love NLP
-0.60206	love language
-0.4771213	models .	0.5228788
-0.8750613	models are

\3-grams:
-0.07918125	models . </s>
-0.1760913	<s> I love
-0.3521825	language models .

\end\
